-1.3079694618324245
-0.24537531594973824
0.045606571967290115
2.1386796676934456
0.06173154150410076
1.1371700409017467
-0.3496560758991809
-0.045849135833134894
-1.5587647537854696
0.02702627592156306
0.14982681901353376
-4.621005943663989
-0.12504108691361754
-0.5665510556251363
-0.4721209523487219
-0.9255679837339218
0.7030857390128079
0.035921937262916204
0.928917997222266
-0.12875664446172003
-0.04756026866274014
-0.7359800606259399
-0.03552152796510185
-1.3329177415856779
-0.10378296239018575
0.2318994501363693
3.7543271594956487
0.0876474980033373
0.8674154397774269
0.03187341331774134
0.40941710301548856
0.7315964047967857
-0.12970351671396613
0.7193828575605058
-0.15093032760438183
0.025005244063163262
-0.25346533927640386
0.010988033413913108
1.72086739889144
0.023447303227339292
0.7571543180297429
1.0247247789344436
-2.780436736222718
-1.906533400497312
-1.0858776742437766
-1.9085695803431488
-0.10390784335968549
0.048773804605999435
0.4182471016558593
-1.8557258747823386
0.4716418132638567
0.19736251345668207
-0.6945752873888182
-0.9714963343440598
0.7398858095925321
-0.032255972444292395
0.1997137746173465
-0.8924342507464448
0.846026685246936
0.4421440026746728
-0.5323933799537066
-0.8655177670631259
0.6463174510317998
1.6237889930788407
0.06534646506179226
-0.4903836610417888
0.313181914794245
-0.11703868846904165
-0.0730311954241024
0.25750897609272383
0.3287879721715954
1.5117623540885767
-0.6624097920107515
0.8871808458021322
-0.9517471868547224
-0.6559906060634575
0.47508618345115927
1.0947805174852125
-0.4986935124580945
1.3502841025074572
0.02883392279188588
-0.7050469905068405
-0.8356604336003493
1.172740823326654
0.11411579939662211
0.2523861672535362
1.299515370971718
-0.15748652166716867
0.04251678919680514
-0.6663588322623164
-0.1874434444906975
0.9028218454644489
-0.14906299043214472
-0.7757006863591552
0.41006373268772567
1.2328608599467368
-0.6903251929409722
1.0538400938083552
-2.080711357134069
-0.7672309145645917
-0.4616550310018168
-0.4262449268628621
-0.3325047004691595
1.2027586048134413
0.0029590902403708237
0.017599734897257
-0.0010370246549146025
-0.00876912681842862
0.01074569087228185
0.02028629103935813
0.009326083312117747
-0.003802199880647882
-0.018723450379990694
0.06254171073961685
0.003866480530879206
-0.12228050630752008
0.0208600380738471
-0.02344084730633219
-0.1526185373166651
-0.016922715677892945
-0.013570997543226491
0.10034764611563211
0.058986199336091026
-0.37803133360125013
-0.019431200680807476
-0.12742576954252322
-0.6484652576840835
-0.020545676276762515
-0.005758748712443445
0.04218870445530852
0.0787306860973039
-0.5187585082672245
-0.08399561551085957
0.06677011738977784
-1.0727591253379063
-0.02660117463204813
-0.013786244472469325
-0.10540066735688557
0.03251898745384326
-0.5027378044889782
-0.16471081916919547
0.3800802257758298
-1.2555336610388075
-0.02094864829643986
-0.03240943729701315
-0.2740804362008494
-0.04349420469950353
-0.4195882986366916
-0.24907427433959456
0.5968489884230588
-1.2930782846661883
0.0020500105508895012
-0.04839528935895022
-0.44547020877830756
-0.1281105867644777
-0.3100733416939847
-0.3229285106067437
0.6823942300844681
-1.244111293235928
0.024581825770490923
-0.07126093787333324
-0.5718849399405764
-0.20878289693167867
-0.18196748458043419
-0.3771981441354543
0.7561411041810476
-1.190343438092303
0.052205239461639644
-0.08573854251010381
-0.6844129420309839
-0.2813264773496868
-0.06046917341784552
-0.4128847959204267
0.7573605366778382
-1.1076000803680928
0.0713726634480823
-0.09186691816178602
-0.776961549473789
-0.34190532012513364
0.04703081856872991
-0.42379104581918736
0.7200759374158365
-1.0114442834678585
0.07540384196213928
-0.10317045018211217
-0.8249960318456596
-0.389456944971536
0.14968270711155787
-0.41616143250699617
0.7300272546740418
-0.944774535769663
0.08164253254706731
-0.10407290663632943
-0.8670556768347597
-0.42646474428559233
0.23293893621882006
-0.39301306804586844
0.6957943536351395
-0.8623089342281404
0.07575979043192643
-0.1041941765366525
-0.8831987148510909
-0.45169537735153237
0.3055781720586123
-0.3561003053278778
0.689355522035376
-0.798116222342653
0.06672144210093009
-0.09797790951572749
-0.893030324515344
-0.4673143810575313
0.36159801327888386
-0.3080344002017646
0.6620323350434709
-0.7286942974240295
0.04972082381848169
-0.09471303345855767
-0.8798398867215365
-0.47441693032985616
0.41255227783997483
-0.2543039858017551
0.6781831541337537
-0.6833428271498326
0.035876221228814016
-0.08324859195009776
-0.8709191377058173
-0.47518546556026947
0.44775146002416194
-0.19437460572407592
0.6588788101652729
-0.6242816925599969
0.014159009463855777
-0.07267139656458592
-0.8512912553055696
-0.4703707285273049
0.4767600872910311
-0.132889300788071
0.6558659460274453
-0.5765049247683215
-0.005323858271054137
-0.05860208789372239
-0.8350941720793061
-0.4605166587545536
0.4926669975219813
-0.06937967292653958
0.6318981238273955
-0.5206084541398789
-0.027442540768274955
-0.04900042712123976
-0.8055226463386607
-0.4468352071581588
0.5047758180407225
-0.00555716760525107
0.6366513737782274
-0.47958768161775867
-0.044413100032961714
-0.03890351864449096
-0.7692405392930981
-0.4287349726860989
0.5106460561937036
0.06018621842111869
0.650578358617839
-0.4463745387376595
-0.06153423754332497
-0.03387452098581329
-0.7254208433322746
-0.4076913906717112
0.5097268291093402
0.12540771097581815
0.6728922698173473
-0.42031014468384925
-0.07477216649803693
-0.02053636090423823
-0.6978722100924952
-0.38521103590131855
0.49466971092215545
0.19015250805355233
0.6483323667767578
-0.3708193867024755
-0.09443911100854006
-0.006478726819637001
-0.6736261358025932
-0.36135059617837517
0.47279122644874577
0.25145188221417564
0.6037439145185901
-0.3175155980383312
-0.11222140937945378
-0.0004090951291681394
-0.6352584347473235
-0.3348012018841757
0.4488667767164653
0.3127901163479623
0.5919279004317999
-0.2815785922980801
-0.1240753883771741
0.0038613789650130143
-0.595374712004354
-0.3076830174497097
0.42030571011503937
0.3722762607729023
0.57807318757369
-0.24640047609410654
-0.13422485730817516
0.012388908051650462
-0.5715895900153019
-0.28087711035592905
0.3805499893887312
0.4271324435276091
0.5129156858725432
-0.18999307459921666
-0.14590110306102794
0.01672455847119526
-0.542916636817515
-0.2531567161140085
0.33831301019772075
0.4789040032338543
0.45698584302208756
-0.14127125657316314
-0.15237656805069635
0.01280991401797899
-0.4980131995131363
-0.2249394930005783
0.30136301527220166
0.5264522489309093
0.4495951385463524
-0.11747676976000306
-0.1494268408081258
0.009377612794624082
-0.4563877067998143
-0.19673315196460098
0.25929405419954865
0.572602625325083
0.4219807821326162
-0.08806436434738757
-0.1466011147912107
0.00568414761321238
-0.4221588004979723
-0.17101752188721056
0.21751886960821226
0.6110020628396654
0.38427028299755056
-0.05398782682889948
-0.14113940715474546
0.0056850653421427165
-0.4016301934572802
-0.14571971969969386
0.16535787326963147
0.647325793886659
0.29457322541732966
0.00048203376407547285
-0.13819194237946852
-0.005339117746018489
-0.3601803452338604
-0.12146652377960203
0.1273857158252625
0.6758265928104137
0.27050734012115807
0.018978662189305114
-0.1215525397546997
-0.018003562378291014
-0.32380125146944205
-0.09991510075009503
0.08977657811976879
0.6965729226715036
0.23939672671662052
0.03992702427801463
-0.10084202927192203
-0.03052964383068635
-0.2894602127608288
-0.0800173081564879
0.054755266713831345
0.7134216162654465
0.19969699835593535
0.06034978395729332
-0.07886611277752448
-0.043530786811334606
-0.2564886832214031
-0.060970713711402336
0.021153300527271945
0.7256429616229917
0.16833686545825646
0.07771022945794794
-0.054601549917039825
-0.06205426161428241
-0.2143920197089519
-0.04262837745069586
-0.006912487360256396
0.734824772901173
0.16444051193523324
0.07959292374790679
-0.025313786283825322
-0.07226209531230948
-0.1955484856698015
-0.02798808681257527
-0.03797386062270531
0.736543168636405
0.1026689937049048
0.10684932849754107
0.00013389705918273248
-0.08760096490156041
-0.1720693659279272
-0.015252000688221799
-0.06448567650582224
0.732300382312028
0.05253579866231672
0.12483981721245642
0.03248348628397179
-0.10635392796802387
-0.1414032552115187
-0.003246275137841643
-0.08165065593270646
0.7232366899402339
0.037824147770442844
0.12450139859269778
0.0694981814173786
-0.12334472665245072
-0.11320096754053459
0.007325170287008308
-0.09789279869660666
0.7110512071310321
0.030464677724304147
0.1231049597769533
0.10548491284942933
-0.14526431754562458
-0.07962218192263865
0.015882859855137273
-0.10815428444749625
0.6951651630995146
0.036890924259677806
0.11364781312818106
0.14667870800011523
-0.16296783370037163
-0.05838924155742407
0.022722763715082996
-0.12060407640119471
0.6763969090094413
0.013156439755437963
0.11705030159724822
0.1840505526019741
-0.18242939755794504
-0.030884221986505103
0.02741502759563189
-0.12439556253469751
0.654998087761477
0.014643205178953783
0.10773065506753647
0.22313032345158812
-0.19734492327626085
-0.01568333041839066
0.03128280665554495
-0.13204197096008072
0.6292208417455498
-0.006373865145703669
0.10961407674661668
0.2604067082208988
-0.21265277670156288
0.003959217242846822
0.03408561043175927
-0.1337469736557919
0.60100398971625
-0.007530360303525781
0.1015411978558103
0.2990062557670005
-0.22788129050737319
0.019263439227562993
0.03614279826001081
-0.13612412165134374
0.5722125889209687
-0.020171979045264382
0.09857111253349059
0.33625758929966065
-0.24181745831105347
0.03237073301799693
0.037569805624791765
-0.1373574086246986
0.5420628947625656
-0.027318730833432336
0.09480023538656433
0.372568064098936
-0.24998816113641215
0.03519885816680763
0.035487828228640994
-0.135429510909883
0.5069965242363449
-0.05806323806063788
0.09989924941610474
0.4049090676430648
-0.26430620745988176
0.053757780741921876
0.03464571043431002
-0.12884895952901418
0.4748919148284651
-0.04429591649935583
0.08526165367601027
0.4407379038167611
-0.2753989588831595
0.0663706353661878
0.03320781390084097
-0.12235161208974434
0.4413780891040661
-0.04183789282223207
0.07433931028653397
0.47444938069106735
-0.2811595512615253
0.07106720149777467
0.030802203146832442
-0.11707888129036732
0.407290269027663
-0.05014771782268625
0.07069368530124127
0.5022384212475802
-0.29233860950795926
0.0886384632457293
0.029525174644039108
-0.10730269903650566
0.375404740902207
-0.02420285700505944
0.04973866575778623
0.5333067756898966
-0.2985594449521656
0.09260315955717224
0.02681227833437917
-0.10047733045824143
0.34377620995579045
-0.038225656422581945
0.04731041403427841
0.5587246383145765
-0.3003636299438523
0.10172006714162161
0.023925853290904003
-0.08937179678805579
0.3148503940533524
-0.03149099839655997
0.03504348644864957
0.5771257553887299
-0.2983258559312818
0.09651982897130654
0.020934136384968813
-0.08623379055945175
0.2846669149711657
-0.059830203909149386
0.04122390766869289
0.5930064503403538
-0.3047672586023528
0.12124613963656904
0.019643066697358758
-0.07076489206829278
0.2582342466178132
-0.009682722165695028
0.007543181207420918
0.6143201959150772
-0.3046386891730535
0.12625118149424414
0.015715476887213083
-0.05858984778942205
0.22673188315753004
0.0026943769868914683
-0.004762903594082153
0.6318181005742053
-0.30025703448194
0.12757936276319506
0.012809891198291533
-0.05063869423577323
0.2006027926877356
0.004122831032153537
-0.011194487250419265
0.6410182637694776
-0.2991261132382709
0.1353183803618132
0.00940215454593692
-0.03775143388819136
0.17339966216420943
0.02088488109811164
-0.02662376690432142
0.6544343860213426
-0.28750240942001226
0.12297996486691942
0.005344121188059296
-0.035406853099748906
0.14748808818770173
-0.02062814010098338
-0.013369332230473301
0.6580938938416583
-0.2831633009332441
0.13614703843001366
0.0033878060117512603
-0.020526032591470435
0.12574840071151683
0.018698084909417434
-0.03845992894014065
0.66416848420758
-0.2732034086942134
0.13566086291396345
0.0009295884778984897
-0.013258280900116867
0.1063381862817985
0.01880610300105145
-0.04317397269382628
0.6629980157994816
-0.26877691859038566
0.14129482576271746
-0.002682032024253816
-0.0011314140631218947
0.08346552308858299
0.0352216629994857
-0.05637711753895493
0.6687760097253587
-0.2561770155714082
0.140115163981638
-0.004201807408357912
0.005194423147269094
0.06787121068110208
0.03721222488170125
-0.06171325889693053
0.662368757287253
-0.24677696903753918
0.13736000104327037
-0.007062792147974125
0.010147072931207493
0.05022904167891766
0.02915889825188306
-0.06180621848764388
0.6594382220263528
-0.23254343557540044
0.12421390654224214
-0.009608935412615484
0.010730180667256922
0.03411186159588643
-0.0025801166757935118
-0.049374673665813405
0.6511706793679003
-0.22900338709624032
0.1445242320033582
-0.010899045848511917
0.027454417549829708
0.01802490447011337
0.06758571952346684
-0.0851915821516543
0.6522466563447501
-0.217795151047138
0.14968771499352207
-0.01224005341437882
0.03605316662713441
0.005691681253081115
0.08462335174312768
-0.0975792612017894
0.6452830842268947
-0.20404179275023743
0.14551627435311867
-0.013754057076395295
0.04053845983410536
-0.0072314781717534625
0.08300847411955975
-0.09952838431307674
0.6353550511332066
-0.18567459129189764
0.1263374157865714
-0.016569904926918035
0.03810024576940629
-0.020765562449854433
0.03661887407176774
-0.07906567655374373
0.6214283701930811
-0.1728760023715023
0.13225232871603262
-0.01702799442356851
0.04526249933954216
-0.028759094190507067
0.06006235817958585
-0.09260703399379
0.608794776000206
-0.15891740058619497
0.13165283794179392
-0.018474213971432528
0.051964838984851686
-0.038655692117582505
0.06700018046943149
-0.09867491117524335
0.5963446833308961
-0.14343239319469708
0.1310464237541523
-0.019179263714969676
0.054744567771557735
-0.04375287070576414
0.0711566599899856
-0.10127711340633053
0.5786805162853507
-0.12703746441335576
0.1274539634568399
-0.02001737143615586
0.05805563782615643
-0.05090762506711271
0.07097017173307614
-0.10252908281982237
0.5628641674253669
-0.11387768570272487
0.1278182467795868
-0.020821648419120414
0.064220307803564
-0.058411271308164994
0.08363132899072717
-0.11027659592907016
0.5491885448074943
-0.09868221195075615
0.12366470142211528
-0.021236801412839616
0.06514703547454695
-0.06325904810115254
0.08178413465994189
-0.10901029338306946
0.531595509847117
-0.08517779963630775
0.13032652229867375
-0.020853137371001876
0.0709729192444551
-0.0657100871747995
0.10865151493948301
-0.1226942138429507
0.515370610783948
-0.0697171256496512
0.1284920375602611
-0.02067891720405823
0.07240293724133935
-0.06764635791441075
0.11457656007614564
-0.12465811512549116
0.49595820131450336
-0.045605031958626
0.10493831354795945
-0.02216318793033573
0.0656675295429569
-0.07244293670011541
0.0600293883708585
-0.09791430342478538
0.4715638529346215
-0.03666799982283191
0.12184465695530006
-0.021499025337296748
0.07564256733151278
-0.07364532062676685
0.11938748817443096
-0.12525880177828233
0.45789274039252875
-0.015689328679272124
0.10163429186892275
-0.022137245548253158
0.06745590835000478
-0.07358499547399124
0.06775734667957561
-0.09942855219754455
0.4314347468530556
-0.002295627268755977
0.10225340258886152
-0.02115985978157902
0.0680615984055234
-0.07309777379739353
0.07891504947587138
-0.10360384533691284
0.41271880719021053
0.01040268161744172
0.1048390931687804
-0.020114981737876375
0.06984060605441313
-0.07192180827721763
0.09351300331384044
-0.11046615512477206
0.3938025045575703
0.02575314861618707
0.09321701285283916
-0.020836202902707268
0.06618023405462896
-0.07235485573415676
0.06291001729964218
-0.09601912624936558
0.37339205760289645
0.0379180019634497
0.09554546620535083
-0.01976095014685803
0.067475527738107
-0.07156938809868252
0.0802223089441713
-0.10243842223795831
0.35688574080095603
0.04359885028775569
0.10569745076764867
-0.01907851584444479
0.07404758598776026
-0.07149327978528075
0.11950193021965157
-0.12041770810177321
0.34452549689204576
0.056190167927468455
0.09927121765071287
-0.0192398687217276
0.07311931751475391
-0.07125031413200379
0.11010209575749992
-0.11482672368073052
0.326073118160783
0.07266119075910735
0.08325847415352097
-0.019511367740923765
0.06781416894779597
-0.07158027161324627
0.07375227123323677
-0.09695222903227114
0.3055110442921641
0.081914383520634
0.08442461337524433
-0.01792562013276338
0.06760720225746536
-0.06889335116702623
0.08877313289331687
-0.10148080500246885
0.28899633649626
0.08531213189035379
0.09501927764621662
-0.016726549437144925
0.07435890877043143
-0.06780650405827329
0.13094298154164058
-0.12087607691085092
0.2787694625594884
0.10541277118894866
0.07216883559932497
-0.01678202658653136
0.06403127045583065
-0.0651226657280186
0.07213408892222543
-0.09133498624490022
0.2537095996946708
0.11691995717900405
0.07418924989334724
-0.015298429746882084
0.06339015786260195
-0.061033261275601776
0.08469394597886203
-0.09556162537341047
0.23514149268829765
0.12475669342039637
0.07639656652464161
-0.014207730038655164
0.06364032956350178
-0.05721571519489158
0.09685645602730826
-0.09975875892063688
0.21974527072646127
0.13869493516975254
0.06006365420683257
-0.013377019922735675
0.05513140994589041
-0.05432283558583498
0.05550184070169661
-0.07896023168303075
0.2002333879381954
0.1418136381029366
0.06961490317084083
-0.012253710496067417
0.06048585599420455
-0.0526242643558503
0.0954467506263666
-0.09585928958538366
0.1914559511711626
0.14688138887916996
0.06933260791558969
-0.011717088965985422
0.06028735899320659
-0.0510463400648968
0.10285180042204262
-0.09704081152071134
0.17949475311367605
0.1560716587926432
0.06247387551709758
-0.011137945472877754
0.05628590672474053
-0.047668317852282004
0.08880774140128138
-0.0886002692832845
0.16366444651438097
0.16348439894474612
0.057119768546171276
-0.010426098574801312
0.05415279885552352
-0.04570465203255764
0.07931659239887869
-0.08367518343740549
0.15025191719049755
0.16592028847411086
0.06132801735104413
-0.009128655634641469
0.05647778623241837
-0.04332764611824832
0.10123201394764623
-0.09227422676064972
0.14150555604842313
0.17848734005900657
0.050362864100868834
-0.008636342912519163
0.050273717241207445
-0.03918278753543303
0.07457588839704678
-0.07762142229265673
0.12220518176543967
0.1829636452052729
0.04900494825069331
-0.007744151896701384
0.04973998904564911
-0.037100162216215885
0.07657026415798762
-0.07772950959151387
0.11226123526209748
0.19205718971329608
0.03979567680036113
-0.007441503606264134
0.045134116073817926
-0.03451509846869323
0.05429372696054768
-0.06570811728857354
0.097805940367297
0.19157806890746804
0.04793301390248276
-0.006146161727976439
0.04868942289452837
-0.03240269135494965
0.08504265861621445
-0.07910224730973128
0.09209228712077314
0.19331905615810982
0.04653139404373928
-0.00518472612856571
0.047806766612318474
-0.02994885720027705
0.088098960659027
-0.0788606519743583
0.08330148614247045
0.1975673027293461
0.03693890576335031
-0.00507590420539099
0.043392913738934856
-0.029819467732204348
0.0663848680309965
-0.06731716567898888
0.07506987392839082
0.2013574088830752
0.029392154909400923
-0.005424405016175379
0.04005438002477698
-0.028618235523606567
0.04756232742280126
-0.05708348739931268
0.0657611907945089
0.20111846001994513
0.03243048896461996
-0.004165741164033852
0.04076494361824467
-0.026194344744406673
0.06311465793281917
-0.06280334290285369
0.059541718372655525
0.20410397021851318
0.02902897539321023
-0.003995301850537731
0.038278939446298135
-0.024079059765655674
0.05735828054299706
-0.058000000059103274
0.05049593618453215
0.20755338276492669
0.02524300142137788
-0.0031794090666875784
0.03573532978450903
-0.02047289429692974
0.047550371003557024
-0.053081847793283496
0.04076690707992533
0.20192964364592073
0.038942631194567444
-0.0020719554314561762
0.042059566686914227
-0.019544391891182948
0.09397509955328272
-0.07370720805777976
0.040941984067942146
0.20715964315768262
0.025930002280902652
-0.0021300713743765197
0.03705450571902888
-0.01895546472875714
0.06013856602409853
-0.05766988119430684
0.03188455623301082
0.2096197178499763
0.01743588373546474
-0.0019684170972639583
0.03252310263511107
-0.017521092518279883
0.04052272844045936
-0.046246599972139285
0.024656610976100415
0.20963198790831444
0.020309191119182255
-0.0013926923963784458
0.03397776391826966
-0.015900698335962134
0.051253542217717794
-0.05111269723505585
0.01964381408363198
0.20667117043244299
0.02537923592325784
-0.0006161547113256922
0.035198913101197264
-0.014362079829259246
0.06824239212891627
-0.0580417492087797
0.01753707393952336
0.20808368263929106
0.02229393129889794
0.0002359236611227842
0.033030822675479014
-0.012278911764863804
0.061048354540565376
-0.05445045332317095
0.011371895495105705
0.21149427485074165
0.009200574845004854
-0.0003106042041009105
0.02753371299786245
-0.013175487916024894
0.027799212367966158
-0.03751609291037353
0.0057656634494403095
0.20922734513912095
0.012763346458148745
-0.0002585991928348914
0.029970610508269047
-0.012819160027054747
0.041406325205525264
-0.04335158660916951
0.003958235420457147
0.2094781428847259
0.008562936440726698
0.0001978979889146772
0.02774239233608791
-0.012586245386726301
0.03418469350888475
-0.038740161784074356
0.0003641364547904073
0.20860770565959585
0.009195033067371624
0.0006216478890856759
0.02805749584880523
-0.011121812642768738
0.03851408784265442
-0.040404070921835095
-0.0033162380690049302
0.20361856885670263
0.01422479049159321
0.0008515190916734235
0.030565090812218407
-0.011368122993330823
0.05532058682453493
-0.047974883684341746
-0.002625449829926628
0.2060169535996586
0.00472535231118251
0.0007845291731398293
0.026964233841993694
-0.010524631700293049
0.03225337661797998
-0.03663788032881615
-0.00885765276382361
0.19848603216091196
0.017583903351811727
0.0014991985705165706
0.03202378595879162
-0.010093064858141265
0.07147363304341182
-0.05407317307707034
-0.005888213585779845
0.199092500076631
0.00872259804631763
0.0012742618327176332
0.02927970519088699
-0.011480226329426167
0.05122654424255488
-0.044123779798729335
-0.008009847483723721
0.2026984801629605
-0.005659431282526342
0.0007989198879320231
0.022989196808464805
-0.011286996622142553
0.012688453142600595
-0.02489076136232809
-0.015123973126644987
0.19961549945417248
-0.002202261341132825
0.0013658424992244842
0.024519779903249425
-0.010457691643005274
0.023569033061986676
-0.030409700527216855
-0.015404251165396964
0.19796814955179784
0.00020716034703059698
0.0017887559789807827
0.023962234003586606
-0.00943230358012722
0.030775170665343323
-0.03267008885948813
-0.017409865888189147
0.20003792118705938
-0.007573824669162234
0.0018964969268651466
0.020844084786516
-0.008648248495447382
0.011477439552396052
-0.023007676868384747
-0.022475946696640294
0.19783752114739647
-0.007601173359838194
0.0018526379065189223
0.021024188150603085
-0.008815609045942183
0.013474738303219002
-0.02322621893810356
-0.02310521934373304
0.19502337466986705
-0.00889641163218576
0.0019449882140170828
0.02099214655037042
-0.009153469186337275
0.01335827970918201
-0.022738065999035953
-0.023542079862724156
0.19259511262954504
-0.008598196117678448
0.002379340950343672
0.020520263234038834
-0.008459533332209007
0.01528462645201939
-0.02323975454766312
-0.025295485310703022
0.1823380261531248
0.005714797578494787
0.002929270138407125
0.02797852613703876
-0.009312896134868272
0.0628994967797112
-0.044824688578386424
-0.018491243588317382
0.18047408362740278
0.0033915533149718956
0.0026769419034850467
0.02720703307406114
-0.009561348038749803
0.05731822966775067
-0.041778308828415614
-0.020269085487923274
0.17935109966847274
-0.002404311472679365
0.002336464977570962
0.02485434167732678
-0.010640052869094332
0.04201910358649796
-0.03422111949197303
-0.020884389190297704
0.18368843132575147
-0.01367814683353638
0.0021403055938188755
0.01901427886278717
-0.008712057673252727
0.007869806972556844
-0.017635657392176936
-0.028386703357282526
0.17888597476615867
-0.008092694291025005
0.002289972213091643
0.02202407570273343
-0.009261898016598264
0.02595108693639226
-0.026060179147853732
-0.026216021223190854
0.1752112803461424
-0.007114991297179411
0.0024187898223869127
0.022560357211846172
-0.009384019822817004
0.02997137104237111
-0.02776175695288707
-0.02529110822957929
0.17737477237482976
-0.019673067849618333
0.001974930911180359
0.016645415960034236
-0.009400377450382375
-0.005058225966162427
-0.010392803369249014
-0.029957043385047108
0.1754978702179586
-0.018501195694572585
0.0023843652135845475
0.016660206553398046
-0.008381966506891637
-0.0006174766832506107
-0.01188518100187031
-0.03143462241645482
0.17295124142748133
-0.019119642993959702
0.0024824167083476356
0.0160125333479107
-0.008434325947581305
-0.003132611170954703
-0.010952194693576308
-0.031606448704096915
0.1700727218325367
-0.019169828436560534
0.002300192006121869
0.016860872601905292
-0.009306700552831764
-0.00025707427486303135
-0.011789870745325908
-0.030868139614010102
0.16708182466278
-0.017510618310946954
0.002281844631395749
0.017711667984927716
-0.009384925074796617
0.005988305555483682
-0.014245048421053218
-0.02988435619331114
0.16163122065025298
-0.008631749798611331
0.002828273475151607
0.021948479311639388
-0.009097251626607432
0.033378607484609635
-0.027251166680580616
-0.027352793500129726
0.16318359180053446
-0.016651039682617535
0.002551973621100223
0.01815049794358833
-0.00894709329133024
0.012116121895254418
-0.016174506595573054
-0.031031736200051917
0.1617786036745973
-0.018598554806378977
0.002599221336834101
0.0166745294489549
-0.008835726247105094
0.0065459515358170335
-0.013090478784082975
-0.03200024380074764
0.16320279407062074
-0.02402935202008055
0.0026896402882005204
0.013645340258394548
-0.007939954787790367
-0.00974846467595131
-0.005403346242196063
-0.03533032049408557
0.15858810284560515
-0.021386389676795473
0.0024475484285269547
0.01577160513370494
-0.008751938208050947
0.0002255483037517117
-0.009665082186128646
-0.03316162250710962
0.1517642545090379
-0.008041979811684613
0.003252244940918943
0.020797068465960675
-0.007562741234568395
0.03794897676795573
-0.0274198119124804
-0.02980500011588816
0.15614845002767425
-0.025557724550306145
0.0023874975720267117
0.01311412165054031
-0.008096281987597707
-0.012469258742538805
-0.0031582234328634217
-0.035289900168937995
0.1499463796100804
-0.016296231254361627
0.002771186246812339
0.017209435332887223
-0.00798396013154282
0.015314025898247284
-0.0160939315348945
-0.03220811171487054
0.15031566769212884
-0.024953031431152236
0.002481711924440187
0.012660146598481914
-0.007445156910799513
-0.011604994754762885
-0.003079551494416546
-0.03543728190459118
